<?xml version="1.0"?>
<opencv_storage>
<cascade>
  <stageType>BOOST</stageType>
  <featureType>HAAR</featureType>
  <height>36</height>
  <width>18</width>
  <stageParams>
    <boostType>GAB</boostType>
    <minHitRate>9.9500000476837158e-01</minHitRate>
    <maxFalseAlarm>4.0000000596046448e-01</maxFalseAlarm>
    <weightTrimRate>9.4999998807907104e-01</weightTrimRate>
    <maxDepth>1</maxDepth>
    <maxWeakCount>500</maxWeakCount></stageParams>
  <featureParams>
    <maxCatCount>0</maxCatCount>
    <featSize>1</featSize>
    <mode>BASIC</mode></featureParams>
  <stageNum>5</stageNum>
  <stages>
    <!-- stage 0 -->
    <_>
      <maxWeakCount>1</maxWeakCount>
      <stageThreshold>8.6666667461395264e-01</stageThreshold>
      <weakClassifiers>
        <_>
          <internalNodes>
            0 -1 6 -1.2750589847564697e-01</internalNodes>
          <leafValues>
            8.6666667461395264e-01 -1.</leafValues></_></weakClassifiers></_>
    <!-- stage 1 -->
    <_>
      <maxWeakCount>1</maxWeakCount>
      <stageThreshold>1.</stageThreshold>
      <weakClassifiers>
        <_>
          <internalNodes>
            0 -1 3 -6.0827687382698059e-02</internalNodes>
          <leafValues>
            1. -1.</leafValues></_></weakClassifiers></_>
    <!-- stage 2 -->
    <_>
      <maxWeakCount>3</maxWeakCount>
      <stageThreshold>-1.1301336288452148e+00</stageThreshold>
      <weakClassifiers>
        <_>
          <internalNodes>
            0 -1 7 6.9592967629432678e-03</internalNodes>
          <leafValues>
            -9.9001997709274292e-01 5.0000000000000000e-01</leafValues></_>
        <_>
          <internalNodes>
            0 -1 8 -1.4516285061836243e-01</internalNodes>
          <leafValues>
            8.8848364353179932e-01 -9.6676814556121826e-01</leafValues></_>
        <_>
          <internalNodes>
            0 -1 5 -5.1789011806249619e-02</internalNodes>
          <leafValues>
            8.2665449380874634e-01 -9.6600598096847534e-01</leafValues></_></weakClassifiers></_>
    <!-- stage 3 -->
    <_>
      <maxWeakCount>3</maxWeakCount>
      <stageThreshold>-1.3524646759033203e+00</stageThreshold>
      <weakClassifiers>
        <_>
          <internalNodes>
            0 -1 1 -2.3268725723028183e-02</internalNodes>
          <leafValues>
            1. -9.8216056823730469e-01</leafValues></_>
        <_>
          <internalNodes>
            0 -1 0 -2.9834685847163200e-02</internalNodes>
          <leafValues>
            6.3881427049636841e-01 -9.7157239913940430e-01</leafValues></_>
        <_>
          <internalNodes>
            0 -1 9 4.0440991520881653e-02</internalNodes>
          <leafValues>
            -9.5836663246154785e-01 6.0126823186874390e-01</leafValues></_></weakClassifiers></_>
    <!-- stage 4 -->
    <_>
      <maxWeakCount>2</maxWeakCount>
      <stageThreshold>-4.2342731356620789e-01</stageThreshold>
      <weakClassifiers>
        <_>
          <internalNodes>
            0 -1 4 -1.0499329864978790e-01</internalNodes>
          <leafValues>
            1. -9.9203187227249146e-01</leafValues></_>
        <_>
          <internalNodes>
            0 -1 2 1.3648393750190735e-01</internalNodes>
          <leafValues>
            -1. 5.6860458850860596e-01</leafValues></_></weakClassifiers></_></stages>
  <features>
    <_>
      <rects>
        <_>
          0 2 2 34 -1.</_>
        <_>
          0 2 1 17 2.</_>
        <_>
          1 19 1 17 2.</_></rects>
      <tilted>0</tilted></_>
    <_>
      <rects>
        <_>
          0 5 2 15 -1.</_>
        <_>
          1 5 1 15 2.</_></rects>
      <tilted>0</tilted></_>
    <_>
      <rects>
        <_>
          0 11 18 10 -1.</_>
        <_>
          6 11 6 10 3.</_></rects>
      <tilted>0</tilted></_>
    <_>
      <rects>
        <_>
          3 7 12 4 -1.</_>
        <_>
          7 7 4 4 3.</_></rects>
      <tilted>0</tilted></_>
    <_>
      <rects>
        <_>
          3 10 10 24 -1.</_>
        <_>
          3 10 5 12 2.</_>
        <_>
          8 22 5 12 2.</_></rects>
      <tilted>0</tilted></_>
    <_>
      <rects>
        <_>
          8 1 3 8 -1.</_>
        <_>
          8 5 3 4 2.</_></rects>
      <tilted>0</tilted></_>
    <_>
      <rects>
        <_>
          8 21 6 12 -1.</_>
        <_>
          8 25 6 4 3.</_></rects>
      <tilted>0</tilted></_>
    <_>
      <rects>
        <_>
          10 0 2 2 -1.</_>
        <_>
          10 1 2 1 2.</_></rects>
      <tilted>0</tilted></_>
    <_>
      <rects>
        <_>
          14 5 4 31 -1.</_>
        <_>
          16 5 2 31 2.</_></rects>
      <tilted>0</tilted></_>
    <_>
      <rects>
        <_>
          15 0 2 34 -1.</_>
        <_>
          15 17 2 17 2.</_></rects>
      <tilted>0</tilted></_></features></cascade>
</opencv_storage>
